digraph Tree {
node [shape=box, style="filled, rounded", color="black", fontname="helvetica"] ;
edge [fontname="helvetica"] ;
0 [label="sulphates <= 0.52\ngini = 0.37\nsamples = 3280\nvalue = [1268, 3929]\nclass = Red Wine", fillcolor="#79bded"] ;
1 [label="chlorides <= 0.07\ngini = 0.13\nsamples = 1816\nvalue = [192, 2671]\nclass = Red Wine", fillcolor="#47a4e7"] ;
0 -> 1 [labeldistance=2.5, labelangle=45, headlabel="True"] ;
2 [label="citric acid <= 0.03\ngini = 0.03\nsamples = 1639\nvalue = [36, 2558]\nclass = Red Wine", fillcolor="#3c9ee5"] ;
1 -> 2 ;
3 [label="total sulfur dioxide <= 44.0\ngini = 0.5\nsamples = 18\nvalue = [15, 17]\nclass = Red Wine", fillcolor="#e8f3fc"] ;
2 -> 3 ;
4 [label="gini = 0.0\nsamples = 7\nvalue = [15, 0]\nclass = White Wine", fillcolor="#e58139"] ;
3 -> 4 ;
5 [label="gini = 0.0\nsamples = 11\nvalue = [0, 17]\nclass = Red Wine", fillcolor="#399de5"] ;
3 -> 5 ;
6 [label="fixed acidity <= 10.0\ngini = 0.02\nsamples = 1621\nvalue = [21, 2541]\nclass = Red Wine", fillcolor="#3b9ee5"] ;
2 -> 6 ;
7 [label="total sulfur dioxide <= 29.5\ngini = 0.01\nsamples = 1615\nvalue = [15, 2538]\nclass = Red Wine", fillcolor="#3a9ee5"] ;
6 -> 7 ;
8 [label="residual sugar <= 1.15\ngini = 0.49\nsamples = 10\nvalue = [7, 5]\nclass = White Wine", fillcolor="#f8dbc6"] ;
7 -> 8 ;
9 [label="gini = 0.0\nsamples = 3\nvalue = [0, 3]\nclass = Red Wine", fillcolor="#399de5"] ;
8 -> 9 ;
10 [label="pH <= 3.27\ngini = 0.35\nsamples = 7\nvalue = [7, 2]\nclass = White Wine", fillcolor="#eca572"] ;
8 -> 10 ;
11 [label="citric acid <= 0.13\ngini = 0.44\nsamples = 3\nvalue = [1, 2]\nclass = Red Wine", fillcolor="#9ccef2"] ;
10 -> 11 ;
12 [label="gini = 0.0\nsamples = 1\nvalue = [1, 0]\nclass = White Wine", fillcolor="#e58139"] ;
11 -> 12 ;
13 [label="gini = 0.0\nsamples = 2\nvalue = [0, 2]\nclass = Red Wine", fillcolor="#399de5"] ;
11 -> 13 ;
14 [label="gini = 0.0\nsamples = 4\nvalue = [6, 0]\nclass = White Wine", fillcolor="#e58139"] ;
10 -> 14 ;
15 [label="residual sugar <= 2.45\ngini = 0.01\nsamples = 1605\nvalue = [8, 2533]\nclass = Red Wine", fillcolor="#3a9de5"] ;
7 -> 15 ;
16 [label="density <= 1.0\ngini = 0.02\nsamples = 530\nvalue = [7, 842]\nclass = Red Wine", fillcolor="#3b9ee5"] ;
15 -> 16 ;
17 [label="citric acid <= 0.04\ngini = 0.01\nsamples = 524\nvalue = [5, 837]\nclass = Red Wine", fillcolor="#3a9ee5"] ;
16 -> 17 ;
18 [label="quality <= 6.0\ngini = 0.28\nsamples = 4\nvalue = [1, 5]\nclass = Red Wine", fillcolor="#61b1ea"] ;
17 -> 18 ;
19 [label="residual sugar <= 1.35\ngini = 0.44\nsamples = 2\nvalue = [1, 2]\nclass = Red Wine", fillcolor="#9ccef2"] ;
18 -> 19 ;
20 [label="gini = 0.0\nsamples = 1\nvalue = [0, 2]\nclass = Red Wine", fillcolor="#399de5"] ;
19 -> 20 ;
21 [label="gini = 0.0\nsamples = 1\nvalue = [1, 0]\nclass = White Wine", fillcolor="#e58139"] ;
19 -> 21 ;
22 [label="gini = 0.0\nsamples = 2\nvalue = [0, 3]\nclass = Red Wine", fillcolor="#399de5"] ;
18 -> 22 ;
23 [label="pH <= 2.9\ngini = 0.01\nsamples = 520\nvalue = [4, 832]\nclass = Red Wine", fillcolor="#3a9de5"] ;
17 -> 23 ;
24 [label="density <= 0.99\ngini = 0.22\nsamples = 6\nvalue = [1, 7]\nclass = Red Wine", fillcolor="#55abe9"] ;
23 -> 24 ;
25 [label="gini = 0.0\nsamples = 1\nvalue = [1, 0]\nclass = White Wine", fillcolor="#e58139"] ;
24 -> 25 ;
26 [label="gini = 0.0\nsamples = 5\nvalue = [0, 7]\nclass = Red Wine", fillcolor="#399de5"] ;
24 -> 26 ;
27 [label="free sulfur dioxide <= 35.5\ngini = 0.01\nsamples = 514\nvalue = [3, 825]\nclass = Red Wine", fillcolor="#3a9de5"] ;
23 -> 27 ;
28 [label="gini = 0.0\nsamples = 358\nvalue = [0, 586]\nclass = Red Wine", fillcolor="#399de5"] ;
27 -> 28 ;
29 [label="chlorides <= 0.02\ngini = 0.02\nsamples = 156\nvalue = [3, 239]\nclass = Red Wine", fillcolor="#3b9ee5"] ;
27 -> 29 ;
30 [label="free sulfur dioxide <= 50.5\ngini = 0.48\nsamples = 4\nvalue = [3, 2]\nclass = White Wine", fillcolor="#f6d5bd"] ;
29 -> 30 ;
31 [label="gini = 0.38\nsamples = 3\nvalue = [3, 1]\nclass = White Wine", fillcolor="#eeab7b"] ;
30 -> 31 ;
32 [label="gini = 0.0\nsamples = 1\nvalue = [0, 1]\nclass = Red Wine", fillcolor="#399de5"] ;
30 -> 32 ;
33 [label="gini = 0.0\nsamples = 152\nvalue = [0, 237]\nclass = Red Wine", fillcolor="#399de5"] ;
29 -> 33 ;
34 [label="volatile acidity <= 0.42\ngini = 0.41\nsamples = 6\nvalue = [2, 5]\nclass = Red Wine", fillcolor="#88c4ef"] ;
16 -> 34 ;
35 [label="gini = 0.0\nsamples = 4\nvalue = [0, 5]\nclass = Red Wine", fillcolor="#399de5"] ;
34 -> 35 ;
36 [label="gini = 0.0\nsamples = 2\nvalue = [2, 0]\nclass = White Wine", fillcolor="#e58139"] ;
34 -> 36 ;
37 [label="total sulfur dioxide <= 280.5\ngini = 0.0\nsamples = 1075\nvalue = [1, 1691]\nclass = Red Wine", fillcolor="#399de5"] ;
15 -> 37 ;
38 [label="gini = 0.0\nsamples = 1073\nvalue = [0, 1690]\nclass = Red Wine", fillcolor="#399de5"] ;
37 -> 38 ;
39 [label="citric acid <= 0.96\ngini = 0.5\nsamples = 2\nvalue = [1, 1]\nclass = White Wine", fillcolor="#ffffff"] ;
37 -> 39 ;
40 [label="gini = 0.0\nsamples = 1\nvalue = [1, 0]\nclass = White Wine", fillcolor="#e58139"] ;
39 -> 40 ;
41 [label="gini = 0.0\nsamples = 1\nvalue = [0, 1]\nclass = Red Wine", fillcolor="#399de5"] ;
39 -> 41 ;
42 [label="quality <= 4.5\ngini = 0.44\nsamples = 6\nvalue = [6, 3]\nclass = White Wine", fillcolor="#f2c09c"] ;
6 -> 42 ;
43 [label="chlorides <= 0.05\ngini = 0.38\nsamples = 3\nvalue = [1, 3]\nclass = Red Wine", fillcolor="#7bbeee"] ;
42 -> 43 ;
44 [label="gini = 0.0\nsamples = 2\nvalue = [0, 3]\nclass = Red Wine", fillcolor="#399de5"] ;
43 -> 44 ;
45 [label="gini = 0.0\nsamples = 1\nvalue = [1, 0]\nclass = White Wine", fillcolor="#e58139"] ;
43 -> 45 ;
46 [label="gini = 0.0\nsamples = 3\nvalue = [5, 0]\nclass = White Wine", fillcolor="#e58139"] ;
42 -> 46 ;
47 [label="free sulfur dioxide <= 21.5\ngini = 0.49\nsamples = 177\nvalue = [156, 113]\nclass = White Wine", fillcolor="#f8dcc8"] ;
1 -> 47 ;
48 [label="total sulfur dioxide <= 87.5\ngini = 0.24\nsamples = 97\nvalue = [129, 21]\nclass = White Wine", fillcolor="#e99659"] ;
47 -> 48 ;
49 [label="density <= 0.99\ngini = 0.03\nsamples = 76\nvalue = [117, 2]\nclass = White Wine", fillcolor="#e5833c"] ;
48 -> 49 ;
50 [label="gini = 0.0\nsamples = 2\nvalue = [0, 2]\nclass = Red Wine", fillcolor="#399de5"] ;
49 -> 50 ;
51 [label="gini = 0.0\nsamples = 74\nvalue = [117, 0]\nclass = White Wine", fillcolor="#e58139"] ;
49 -> 51 ;
52 [label="volatile acidity <= 0.61\ngini = 0.47\nsamples = 21\nvalue = [12, 19]\nclass = Red Wine", fillcolor="#b6dbf5"] ;
48 -> 52 ;
53 [label="sulphates <= 0.5\ngini = 0.17\nsamples = 15\nvalue = [2, 19]\nclass = Red Wine", fillcolor="#4ea7e8"] ;
52 -> 53 ;
54 [label="gini = 0.0\nsamples = 14\nvalue = [0, 19]\nclass = Red Wine", fillcolor="#399de5"] ;
53 -> 54 ;
55 [label="gini = 0.0\nsamples = 1\nvalue = [2, 0]\nclass = White Wine", fillcolor="#e58139"] ;
53 -> 55 ;
56 [label="gini = 0.0\nsamples = 6\nvalue = [10, 0]\nclass = White Wine", fillcolor="#e58139"] ;
52 -> 56 ;
57 [label="fixed acidity <= 7.05\ngini = 0.35\nsamples = 80\nvalue = [27, 92]\nclass = Red Wine", fillcolor="#73baed"] ;
47 -> 57 ;
58 [label="volatile acidity <= 0.39\ngini = 0.12\nsamples = 48\nvalue = [5, 70]\nclass = Red Wine", fillcolor="#47a4e7"] ;
57 -> 58 ;
59 [label="gini = 0.0\nsamples = 40\nvalue = [0, 63]\nclass = Red Wine", fillcolor="#399de5"] ;
58 -> 59 ;
60 [label="chlorides <= 0.09\ngini = 0.49\nsamples = 8\nvalue = [5, 7]\nclass = Red Wine", fillcolor="#c6e3f8"] ;
58 -> 60 ;
61 [label="total sulfur dioxide <= 135.0\ngini = 0.41\nsamples = 6\nvalue = [5, 2]\nclass = White Wine", fillcolor="#efb388"] ;
60 -> 61 ;
62 [label="gini = 0.0\nsamples = 5\nvalue = [5, 0]\nclass = White Wine", fillcolor="#e58139"] ;
61 -> 62 ;
63 [label="gini = 0.0\nsamples = 1\nvalue = [0, 2]\nclass = Red Wine", fillcolor="#399de5"] ;
61 -> 63 ;
64 [label="gini = 0.0\nsamples = 2\nvalue = [0, 5]\nclass = Red Wine", fillcolor="#399de5"] ;
60 -> 64 ;
65 [label="pH <= 3.19\ngini = 0.5\nsamples = 32\nvalue = [22, 22]\nclass = White Wine", fillcolor="#ffffff"] ;
57 -> 65 ;
66 [label="residual sugar <= 4.15\ngini = 0.3\nsamples = 19\nvalue = [5, 22]\nclass = Red Wine", fillcolor="#66b3eb"] ;
65 -> 66 ;
67 [label="sulphates <= 0.5\ngini = 0.5\nsamples = 7\nvalue = [5, 6]\nclass = Red Wine", fillcolor="#deeffb"] ;
66 -> 67 ;
68 [label="alcohol <= 9.25\ngini = 0.41\nsamples = 4\nvalue = [5, 2]\nclass = White Wine", fillcolor="#efb388"] ;
67 -> 68 ;
69 [label="gini = 0.0\nsamples = 1\nvalue = [0, 2]\nclass = Red Wine", fillcolor="#399de5"] ;
68 -> 69 ;
70 [label="gini = 0.0\nsamples = 3\nvalue = [5, 0]\nclass = White Wine", fillcolor="#e58139"] ;
68 -> 70 ;
71 [label="gini = 0.0\nsamples = 3\nvalue = [0, 4]\nclass = Red Wine", fillcolor="#399de5"] ;
67 -> 71 ;
72 [label="gini = 0.0\nsamples = 12\nvalue = [0, 16]\nclass = Red Wine", fillcolor="#399de5"] ;
66 -> 72 ;
73 [label="gini = 0.0\nsamples = 13\nvalue = [17, 0]\nclass = White Wine", fillcolor="#e58139"] ;
65 -> 73 ;
74 [label="volatile acidity <= 0.39\ngini = 0.5\nsamples = 1464\nvalue = [1076, 1258]\nclass = Red Wine", fillcolor="#e2f1fb"] ;
0 -> 74 [labeldistance=2.5, labelangle=-45, headlabel="False"] ;
75 [label="total sulfur dioxide <= 58.5\ngini = 0.3\nsamples = 865\nvalue = [253, 1129]\nclass = Red Wine", fillcolor="#65b3eb"] ;
74 -> 75 ;
76 [label="pH <= 2.87\ngini = 0.11\nsamples = 147\nvalue = [214, 13]\nclass = White Wine", fillcolor="#e78945"] ;
75 -> 76 ;
77 [label="gini = 0.0\nsamples = 2\nvalue = [0, 7]\nclass = Red Wine", fillcolor="#399de5"] ;
76 -> 77 ;
78 [label="chlorides <= 0.04\ngini = 0.05\nsamples = 145\nvalue = [214, 6]\nclass = White Wine", fillcolor="#e6853f"] ;
76 -> 78 ;
79 [label="gini = 0.0\nsamples = 4\nvalue = [0, 6]\nclass = Red Wine", fillcolor="#399de5"] ;
78 -> 79 ;
80 [label="gini = 0.0\nsamples = 141\nvalue = [214, 0]\nclass = White Wine", fillcolor="#e58139"] ;
78 -> 80 ;
81 [label="volatile acidity <= 0.34\ngini = 0.07\nsamples = 718\nvalue = [39, 1116]\nclass = Red Wine", fillcolor="#40a0e6"] ;
75 -> 81 ;
82 [label="fixed acidity <= 9.25\ngini = 0.03\nsamples = 621\nvalue = [17, 976]\nclass = Red Wine", fillcolor="#3c9fe5"] ;
81 -> 82 ;
83 [label="free sulfur dioxide <= 21.5\ngini = 0.02\nsamples = 614\nvalue = [12, 972]\nclass = Red Wine", fillcolor="#3b9ee5"] ;
82 -> 83 ;
84 [label="chlorides <= 0.05\ngini = 0.08\nsamples = 121\nvalue = [8, 183]\nclass = Red Wine", fillcolor="#42a1e6"] ;
83 -> 84 ;
85 [label="gini = 0.0\nsamples = 102\nvalue = [0, 167]\nclass = Red Wine", fillcolor="#399de5"] ;
84 -> 85 ;
86 [label="free sulfur dioxide <= 18.5\ngini = 0.44\nsamples = 19\nvalue = [8, 16]\nclass = Red Wine", fillcolor="#9ccef2"] ;
84 -> 86 ;
87 [label="citric acid <= 0.46\ngini = 0.13\nsamples = 12\nvalue = [1, 13]\nclass = Red Wine", fillcolor="#48a5e7"] ;
86 -> 87 ;
88 [label="gini = 0.0\nsamples = 11\nvalue = [0, 13]\nclass = Red Wine", fillcolor="#399de5"] ;
87 -> 88 ;
89 [label="gini = 0.0\nsamples = 1\nvalue = [1, 0]\nclass = White Wine", fillcolor="#e58139"] ;
87 -> 89 ;
90 [label="fixed acidity <= 7.35\ngini = 0.42\nsamples = 7\nvalue = [7, 3]\nclass = White Wine", fillcolor="#f0b78e"] ;
86 -> 90 ;
91 [label="density <= 1.0\ngini = 0.38\nsamples = 4\nvalue = [1, 3]\nclass = Red Wine", fillcolor="#7bbeee"] ;
90 -> 91 ;
92 [label="gini = 0.0\nsamples = 2\nvalue = [0, 2]\nclass = Red Wine", fillcolor="#399de5"] ;
91 -> 92 ;
93 [label="total sulfur dioxide <= 84.0\ngini = 0.5\nsamples = 2\nvalue = [1, 1]\nclass = White Wine", fillcolor="#ffffff"] ;
91 -> 93 ;
94 [label="gini = 0.0\nsamples = 1\nvalue = [1, 0]\nclass = White Wine", fillcolor="#e58139"] ;
93 -> 94 ;
95 [label="gini = 0.0\nsamples = 1\nvalue = [0, 1]\nclass = Red Wine", fillcolor="#399de5"] ;
93 -> 95 ;
96 [label="gini = 0.0\nsamples = 3\nvalue = [6, 0]\nclass = White Wine", fillcolor="#e58139"] ;
90 -> 96 ;
97 [label="density <= 0.99\ngini = 0.01\nsamples = 493\nvalue = [4, 789]\nclass = Red Wine", fillcolor="#3a9de5"] ;
83 -> 97 ;
98 [label="gini = 0.0\nsamples = 299\nvalue = [0, 487]\nclass = Red Wine", fillcolor="#399de5"] ;
97 -> 98 ;
99 [label="density <= 0.99\ngini = 0.03\nsamples = 194\nvalue = [4, 302]\nclass = Red Wine", fillcolor="#3c9ee5"] ;
97 -> 99 ;
100 [label="gini = 0.0\nsamples = 1\nvalue = [1, 0]\nclass = White Wine", fillcolor="#e58139"] ;
99 -> 100 ;
101 [label="chlorides <= 0.06\ngini = 0.02\nsamples = 193\nvalue = [3, 302]\nclass = Red Wine", fillcolor="#3b9ee5"] ;
99 -> 101 ;
102 [label="gini = 0.0\nsamples = 180\nvalue = [0, 282]\nclass = Red Wine", fillcolor="#399de5"] ;
101 -> 102 ;
103 [label="citric acid <= 0.44\ngini = 0.23\nsamples = 13\nvalue = [3, 20]\nclass = Red Wine", fillcolor="#57ace9"] ;
101 -> 103 ;
104 [label="total sulfur dioxide <= 90.0\ngini = 0.09\nsamples = 11\nvalue = [1, 20]\nclass = Red Wine", fillcolor="#43a2e6"] ;
103 -> 104 ;
105 [label="gini = 0.0\nsamples = 1\nvalue = [1, 0]\nclass = White Wine", fillcolor="#e58139"] ;
104 -> 105 ;
106 [label="gini = 0.0\nsamples = 10\nvalue = [0, 20]\nclass = Red Wine", fillcolor="#399de5"] ;
104 -> 106 ;
107 [label="gini = 0.0\nsamples = 2\nvalue = [2, 0]\nclass = White Wine", fillcolor="#e58139"] ;
103 -> 107 ;
108 [label="volatile acidity <= 0.3\ngini = 0.49\nsamples = 7\nvalue = [5, 4]\nclass = White Wine", fillcolor="#fae6d7"] ;
82 -> 108 ;
109 [label="gini = 0.0\nsamples = 4\nvalue = [0, 4]\nclass = Red Wine", fillcolor="#399de5"] ;
108 -> 109 ;
110 [label="gini = 0.0\nsamples = 3\nvalue = [5, 0]\nclass = White Wine", fillcolor="#e58139"] ;
108 -> 110 ;
111 [label="chlorides <= 0.07\ngini = 0.23\nsamples = 97\nvalue = [22, 140]\nclass = Red Wine", fillcolor="#58ace9"] ;
81 -> 111 ;
112 [label="density <= 1.0\ngini = 0.02\nsamples = 78\nvalue = [1, 126]\nclass = Red Wine", fillcolor="#3b9ee5"] ;
111 -> 112 ;
113 [label="gini = 0.0\nsamples = 73\nvalue = [0, 120]\nclass = Red Wine", fillcolor="#399de5"] ;
112 -> 113 ;
114 [label="chlorides <= 0.07\ngini = 0.24\nsamples = 5\nvalue = [1, 6]\nclass = Red Wine", fillcolor="#5aade9"] ;
112 -> 114 ;
115 [label="gini = 0.0\nsamples = 4\nvalue = [0, 6]\nclass = Red Wine", fillcolor="#399de5"] ;
114 -> 115 ;
116 [label="gini = 0.0\nsamples = 1\nvalue = [1, 0]\nclass = White Wine", fillcolor="#e58139"] ;
114 -> 116 ;
117 [label="chlorides <= 0.09\ngini = 0.48\nsamples = 19\nvalue = [21, 14]\nclass = White Wine", fillcolor="#f6d5bd"] ;
111 -> 117 ;
118 [label="residual sugar <= 2.7\ngini = 0.09\nsamples = 13\nvalue = [20, 1]\nclass = White Wine", fillcolor="#e68743"] ;
117 -> 118 ;
119 [label="gini = 0.0\nsamples = 12\nvalue = [20, 0]\nclass = White Wine", fillcolor="#e58139"] ;
118 -> 119 ;
120 [label="gini = 0.0\nsamples = 1\nvalue = [0, 1]\nclass = Red Wine", fillcolor="#399de5"] ;
118 -> 120 ;
121 [label="quality <= 5.5\ngini = 0.13\nsamples = 6\nvalue = [1, 13]\nclass = Red Wine", fillcolor="#48a5e7"] ;
117 -> 121 ;
122 [label="gini = 0.0\nsamples = 5\nvalue = [0, 13]\nclass = Red Wine", fillcolor="#399de5"] ;
121 -> 122 ;
123 [label="gini = 0.0\nsamples = 1\nvalue = [1, 0]\nclass = White Wine", fillcolor="#e58139"] ;
121 -> 123 ;
124 [label="density <= 0.99\ngini = 0.23\nsamples = 599\nvalue = [823, 129]\nclass = White Wine", fillcolor="#e99558"] ;
74 -> 124 ;
125 [label="fixed acidity <= 5.15\ngini = 0.23\nsamples = 40\nvalue = [8, 53]\nclass = Red Wine", fillcolor="#57ace9"] ;
124 -> 125 ;
126 [label="free sulfur dioxide <= 21.0\ngini = 0.44\nsamples = 5\nvalue = [6, 3]\nclass = White Wine", fillcolor="#f2c09c"] ;
125 -> 126 ;
127 [label="gini = 0.0\nsamples = 3\nvalue = [6, 0]\nclass = White Wine", fillcolor="#e58139"] ;
126 -> 127 ;
128 [label="gini = 0.0\nsamples = 2\nvalue = [0, 3]\nclass = Red Wine", fillcolor="#399de5"] ;
126 -> 128 ;
129 [label="total sulfur dioxide <= 34.0\ngini = 0.07\nsamples = 35\nvalue = [2, 50]\nclass = Red Wine", fillcolor="#41a1e6"] ;
125 -> 129 ;
130 [label="gini = 0.0\nsamples = 1\nvalue = [1, 0]\nclass = White Wine", fillcolor="#e58139"] ;
129 -> 130 ;
131 [label="sulphates <= 0.84\ngini = 0.04\nsamples = 34\nvalue = [1, 50]\nclass = Red Wine", fillcolor="#3d9fe6"] ;
129 -> 131 ;
132 [label="gini = 0.0\nsamples = 31\nvalue = [0, 47]\nclass = Red Wine", fillcolor="#399de5"] ;
131 -> 132 ;
133 [label="citric acid <= 0.12\ngini = 0.38\nsamples = 3\nvalue = [1, 3]\nclass = Red Wine", fillcolor="#7bbeee"] ;
131 -> 133 ;
134 [label="gini = 0.0\nsamples = 1\nvalue = [1, 0]\nclass = White Wine", fillcolor="#e58139"] ;
133 -> 134 ;
135 [label="gini = 0.0\nsamples = 2\nvalue = [0, 3]\nclass = Red Wine", fillcolor="#399de5"] ;
133 -> 135 ;
136 [label="residual sugar <= 7.05\ngini = 0.16\nsamples = 559\nvalue = [815, 76]\nclass = White Wine", fillcolor="#e78d4b"] ;
124 -> 136 ;
137 [label="fixed acidity <= 4.9\ngini = 0.06\nsamples = 519\nvalue = [799, 26]\nclass = White Wine", fillcolor="#e6853f"] ;
136 -> 137 ;
138 [label="gini = 0.0\nsamples = 1\nvalue = [0, 2]\nclass = Red Wine", fillcolor="#399de5"] ;
137 -> 138 ;
139 [label="residual sugar <= 1.35\ngini = 0.06\nsamples = 518\nvalue = [799, 24]\nclass = White Wine", fillcolor="#e6853f"] ;
137 -> 139 ;
140 [label="citric acid <= 0.1\ngini = 0.46\nsamples = 6\nvalue = [4, 7]\nclass = Red Wine", fillcolor="#aad5f4"] ;
139 -> 140 ;
141 [label="gini = 0.0\nsamples = 2\nvalue = [4, 0]\nclass = White Wine", fillcolor="#e58139"] ;
140 -> 141 ;
142 [label="gini = 0.0\nsamples = 4\nvalue = [0, 7]\nclass = Red Wine", fillcolor="#399de5"] ;
140 -> 142 ;
143 [label="free sulfur dioxide <= 38.25\ngini = 0.04\nsamples = 512\nvalue = [795, 17]\nclass = White Wine", fillcolor="#e6843d"] ;
139 -> 143 ;
144 [label="density <= 1.0\ngini = 0.02\nsamples = 498\nvalue = [785, 7]\nclass = White Wine", fillcolor="#e5823b"] ;
143 -> 144 ;
145 [label="alcohol <= 10.05\ngini = 0.12\nsamples = 74\nvalue = [107, 7]\nclass = White Wine", fillcolor="#e78946"] ;
144 -> 145 ;
146 [label="quality <= 5.5\ngini = 0.49\nsamples = 5\nvalue = [4, 5]\nclass = Red Wine", fillcolor="#d7ebfa"] ;
145 -> 146 ;
147 [label="gini = 0.0\nsamples = 3\nvalue = [0, 5]\nclass = Red Wine", fillcolor="#399de5"] ;
146 -> 147 ;
148 [label="gini = 0.0\nsamples = 2\nvalue = [4, 0]\nclass = White Wine", fillcolor="#e58139"] ;
146 -> 148 ;
149 [label="pH <= 3.09\ngini = 0.04\nsamples = 69\nvalue = [103, 2]\nclass = White Wine", fillcolor="#e6833d"] ;
145 -> 149 ;
150 [label="gini = 0.0\nsamples = 1\nvalue = [0, 1]\nclass = Red Wine", fillcolor="#399de5"] ;
149 -> 150 ;
151 [label="chlorides <= 0.05\ngini = 0.02\nsamples = 68\nvalue = [103, 1]\nclass = White Wine", fillcolor="#e5823b"] ;
149 -> 151 ;
152 [label="citric acid <= 0.24\ngini = 0.12\nsamples = 10\nvalue = [15, 1]\nclass = White Wine", fillcolor="#e78946"] ;
151 -> 152 ;
153 [label="gini = 0.0\nsamples = 7\nvalue = [12, 0]\nclass = White Wine", fillcolor="#e58139"] ;
152 -> 153 ;
154 [label="citric acid <= 0.27\ngini = 0.38\nsamples = 3\nvalue = [3, 1]\nclass = White Wine", fillcolor="#eeab7b"] ;
152 -> 154 ;
155 [label="gini = 0.0\nsamples = 1\nvalue = [0, 1]\nclass = Red Wine", fillcolor="#399de5"] ;
154 -> 155 ;
156 [label="gini = 0.0\nsamples = 2\nvalue = [3, 0]\nclass = White Wine", fillcolor="#e58139"] ;
154 -> 156 ;
157 [label="gini = 0.0\nsamples = 58\nvalue = [88, 0]\nclass = White Wine", fillcolor="#e58139"] ;
151 -> 157 ;
158 [label="gini = 0.0\nsamples = 424\nvalue = [678, 0]\nclass = White Wine", fillcolor="#e58139"] ;
144 -> 158 ;
159 [label="total sulfur dioxide <= 137.5\ngini = 0.5\nsamples = 14\nvalue = [10, 10]\nclass = White Wine", fillcolor="#ffffff"] ;
143 -> 159 ;
160 [label="gini = 0.0\nsamples = 8\nvalue = [10, 0]\nclass = White Wine", fillcolor="#e58139"] ;
159 -> 160 ;
161 [label="gini = 0.0\nsamples = 6\nvalue = [0, 10]\nclass = Red Wine", fillcolor="#399de5"] ;
159 -> 161 ;
162 [label="density <= 1.0\ngini = 0.37\nsamples = 40\nvalue = [16, 50]\nclass = Red Wine", fillcolor="#78bced"] ;
136 -> 162 ;
163 [label="residual sugar <= 8.85\ngini = 0.2\nsamples = 33\nvalue = [6, 47]\nclass = Red Wine", fillcolor="#52aae8"] ;
162 -> 163 ;
164 [label="pH <= 3.36\ngini = 0.48\nsamples = 9\nvalue = [6, 9]\nclass = Red Wine", fillcolor="#bddef6"] ;
163 -> 164 ;
165 [label="total sulfur dioxide <= 94.5\ngini = 0.2\nsamples = 6\nvalue = [1, 8]\nclass = Red Wine", fillcolor="#52a9e8"] ;
164 -> 165 ;
166 [label="gini = 0.0\nsamples = 1\nvalue = [1, 0]\nclass = White Wine", fillcolor="#e58139"] ;
165 -> 166 ;
167 [label="gini = 0.0\nsamples = 5\nvalue = [0, 8]\nclass = Red Wine", fillcolor="#399de5"] ;
165 -> 167 ;
168 [label="free sulfur dioxide <= 38.5\ngini = 0.28\nsamples = 3\nvalue = [5, 1]\nclass = White Wine", fillcolor="#ea9a61"] ;
164 -> 168 ;
169 [label="gini = 0.0\nsamples = 2\nvalue = [5, 0]\nclass = White Wine", fillcolor="#e58139"] ;
168 -> 169 ;
170 [label="gini = 0.0\nsamples = 1\nvalue = [0, 1]\nclass = Red Wine", fillcolor="#399de5"] ;
168 -> 170 ;
171 [label="gini = 0.0\nsamples = 24\nvalue = [0, 38]\nclass = Red Wine", fillcolor="#399de5"] ;
163 -> 171 ;
172 [label="citric acid <= 0.55\ngini = 0.36\nsamples = 7\nvalue = [10, 3]\nclass = White Wine", fillcolor="#eda774"] ;
162 -> 172 ;
173 [label="gini = 0.0\nsamples = 5\nvalue = [10, 0]\nclass = White Wine", fillcolor="#e58139"] ;
172 -> 173 ;
174 [label="gini = 0.0\nsamples = 2\nvalue = [0, 3]\nclass = Red Wine", fillcolor="#399de5"] ;
172 -> 174 ;
}